<?xml version="1.0"?>
<opencv_storage>
<cascade>
  <stageType>BOOST</stageType>
  <featureType>HAAR</featureType>
  <height>100</height>
  <width>100</width>
  <stageParams>
    <boostType>GAB</boostType>
    <minHitRate>9.9500000476837158e-01</minHitRate>
    <maxFalseAlarm>5.0000000000000000e-01</maxFalseAlarm>
    <weightTrimRate>9.4999999999999996e-01</weightTrimRate>
    <maxDepth>1</maxDepth>
    <maxWeakCount>100</maxWeakCount></stageParams>
  <featureParams>
    <maxCatCount>0</maxCatCount>
    <featSize>1</featSize>
    <mode>BASIC</mode></featureParams>
  <stageNum>30</stageNum>
  <stages>
    <!-- stage 0 -->
    <_>
      <maxWeakCount>1</maxWeakCount>
      <stageThreshold>1.</stageThreshold>
      <weakClassifiers>
        <_>
          <internalNodes>
            0 -1 2 -4.6964287757873535e-01</internalNodes>
          <leafValues>
            1. -1.</leafValues></_></weakClassifiers></_>
    <!-- stage 1 -->
    <_>
      <maxWeakCount>1</maxWeakCount>
      <stageThreshold>7.5000000000000000e-01</stageThreshold>
      <weakClassifiers>
        <_>
          <internalNodes>
            0 -1 8 -1.0488752275705338e-02</internalNodes>
          <leafValues>
            -1. 7.5000000000000000e-01</leafValues></_></weakClassifiers></_>
    <!-- stage 2 -->
    <_>
      <maxWeakCount>3</maxWeakCount>
      <stageThreshold>-6.5501064062118530e-01</stageThreshold>
      <weakClassifiers>
        <_>
          <internalNodes>
            0 -1 56 1.2803010642528534e-02</internalNodes>
          <leafValues>
            -8.3606559038162231e-01 7.9591834545135498e-01</leafValues></_>
        <_>
          <internalNodes>
            0 -1 10 1.5670481370761991e-03</internalNodes>
          <leafValues>
            -7.3747736215591431e-01 8.4814119338989258e-01</leafValues></_>
        <_>
          <internalNodes>
            0 -1 9 -2.8791759163141251e-02</internalNodes>
          <leafValues>
            9.3218547105789185e-01 -6.6708624362945557e-01</leafValues></_></weakClassifiers></_>
    <!-- stage 3 -->
    <_>
      <maxWeakCount>2</maxWeakCount>
      <stageThreshold>-2.2264167200773954e-03</stageThreshold>
      <weakClassifiers>
        <_>
          <internalNodes>
            0 -1 30 -2.6015129406005144e-03</internalNodes>
          <leafValues>
            1. -5.8441555500030518e-01</leafValues></_>
        <_>
          <internalNodes>
            0 -1 70 4.4795830035582185e-04</internalNodes>
          <leafValues>
            -9.3906223773956299e-01 5.8218914270401001e-01</leafValues></_></weakClassifiers></_>
    <!-- stage 4 -->
    <_>
      <maxWeakCount>3</maxWeakCount>
      <stageThreshold>-3.8836655020713806e-01</stageThreshold>
      <weakClassifiers>
        <_>
          <internalNodes>
            0 -1 25 2.7222749777138233e-03</internalNodes>
          <leafValues>
            -6.6153848171234131e-01 6.8888890743255615e-01</leafValues></_>
        <_>
          <internalNodes>
            0 -1 45 -4.7537437640130520e-03</internalNodes>
          <leafValues>
            8.9540690183639526e-01 -5.3076261281967163e-01</leafValues></_>
        <_>
          <internalNodes>
            0 -1 23 1.2313505634665489e-02</internalNodes>
          <leafValues>
            -5.4649287462234497e-01 8.6379724740982056e-01</leafValues></_></weakClassifiers></_>
    <!-- stage 5 -->
    <_>
      <maxWeakCount>2</maxWeakCount>
      <stageThreshold>8.0940298736095428e-02</stageThreshold>
      <weakClassifiers>
        <_>
          <internalNodes>
            0 -1 62 -1.2315837375354022e-04</internalNodes>
          <leafValues>
            7.6190477609634399e-01 -6.4705884456634521e-01</leafValues></_>
        <_>
          <internalNodes>
            0 -1 17 1.2087267532479018e-04</internalNodes>
          <leafValues>
            -6.8096446990966797e-01 8.2705539464950562e-01</leafValues></_></weakClassifiers></_>
    <!-- stage 6 -->
    <_>
      <maxWeakCount>2</maxWeakCount>
      <stageThreshold>-1.8484488129615784e-01</stageThreshold>
      <weakClassifiers>
        <_>
          <internalNodes>
            0 -1 54 3.5469215363264084e-03</internalNodes>
          <leafValues>
            -8.0769228935241699e-01 5.1724135875701904e-01</leafValues></_>
        <_>
          <internalNodes>
            0 -1 46 -1.5245829126797616e-04</internalNodes>
          <leafValues>
            7.8929090499877930e-01 -7.0208626985549927e-01</leafValues></_></weakClassifiers></_>
    <!-- stage 7 -->
    <_>
      <maxWeakCount>3</maxWeakCount>
      <stageThreshold>-7.1918809413909912e-01</stageThreshold>
      <weakClassifiers>
        <_>
          <internalNodes>
            0 -1 0 7.7665003482252359e-04</internalNodes>
          <leafValues>
            -6.7741936445236206e-01 6.2500000000000000e-01</leafValues></_>
        <_>
          <internalNodes>
            0 -1 51 -8.5057021351531148e-05</internalNodes>
          <leafValues>
            8.3686971664428711e-01 -5.4545998573303223e-01</leafValues></_>
        <_>
          <internalNodes>
            0 -1 11 1.1675646901130676e-01</internalNodes>
          <leafValues>
            5.0369125604629517e-01 -1.</leafValues></_></weakClassifiers></_>
    <!-- stage 8 -->
    <_>
      <maxWeakCount>2</maxWeakCount>
      <stageThreshold>-1.6125284135341644e-01</stageThreshold>
      <weakClassifiers>
        <_>
          <internalNodes>
            0 -1 18 1.5803016722202301e-03</internalNodes>
          <leafValues>
            -8.3333331346511841e-01 7.5999999046325684e-01</leafValues></_>
        <_>
          <internalNodes>
            0 -1 40 -3.9713049773126841e-05</internalNodes>
          <leafValues>
            6.7208051681518555e-01 -8.0942934751510620e-01</leafValues></_></weakClassifiers></_>
    <!-- stage 9 -->
    <_>
      <maxWeakCount>2</maxWeakCount>
      <stageThreshold>-1.0973949730396271e-01</stageThreshold>
      <weakClassifiers>
        <_>
          <internalNodes>
            0 -1 35 -1.9482290372252464e-03</internalNodes>
          <leafValues>
            7.7272725105285645e-01 -6.9696968793869019e-01</leafValues></_>
        <_>
          <internalNodes>
            0 -1 61 -1.5107289073057473e-04</internalNodes>
          <leafValues>
            5.9719759225845337e-01 -8.8246679306030273e-01</leafValues></_></weakClassifiers></_>
    <!-- stage 10 -->
    <_>
      <maxWeakCount>3</maxWeakCount>
      <stageThreshold>-5.0852513313293457e-01</stageThreshold>
      <weakClassifiers>
        <_>
          <internalNodes>
            0 -1 49 6.1131175607442856e-03</internalNodes>
          <leafValues>
            -6.3380283117294312e-01 8.4615385532379150e-01</leafValues></_>
        <_>
          <internalNodes>
            0 -1 33 -9.2817697441205382e-04</internalNodes>
          <leafValues>
            8.1710201501846313e-01 -6.1211007833480835e-01</leafValues></_>
        <_>
          <internalNodes>
            0 -1 32 -1.9456226145848632e-03</internalNodes>
          <leafValues>
            7.3738777637481689e-01 -6.5852856636047363e-01</leafValues></_></weakClassifiers></_>
    <!-- stage 11 -->
    <_>
      <maxWeakCount>2</maxWeakCount>
      <stageThreshold>-6.9594547152519226e-02</stageThreshold>
      <weakClassifiers>
        <_>
          <internalNodes>
            0 -1 50 2.9372945427894592e-03</internalNodes>
          <leafValues>
            -6.1111110448837280e-01 8.4210526943206787e-01</leafValues></_>
        <_>
          <internalNodes>
            0 -1 47 -1.0146708518732339e-04</internalNodes>
          <leafValues>
            -9.1169983148574829e-01 5.8185970783233643e-01</leafValues></_></weakClassifiers></_>
    <!-- stage 12 -->
    <_>
      <maxWeakCount>2</maxWeakCount>
      <stageThreshold>1.2264347076416016e-01</stageThreshold>
      <weakClassifiers>
        <_>
          <internalNodes>
            0 -1 37 -5.4702507331967354e-03</internalNodes>
          <leafValues>
            8.0952382087707520e-01 -6.7647057771682739e-01</leafValues></_>
        <_>
          <internalNodes>
            0 -1 24 -1.3692725449800491e-02</internalNodes>
          <leafValues>
            7.9911404848098755e-01 -6.7500340938568115e-01</leafValues></_></weakClassifiers></_>
    <!-- stage 13 -->
    <_>
      <maxWeakCount>3</maxWeakCount>
      <stageThreshold>-6.8140041828155518e-01</stageThreshold>
      <weakClassifiers>
        <_>
          <internalNodes>
            0 -1 43 1.9654087373055518e-04</internalNodes>
          <leafValues>
            -5.6410259008407593e-01 1.</leafValues></_>
        <_>
          <internalNodes>
            0 -1 68 -2.9632661608047783e-05</internalNodes>
          <leafValues>
            -7.5952440500259399e-01 7.3772370815277100e-01</leafValues></_>
        <_>
          <internalNodes>
            0 -1 26 -1.3970640429761261e-04</internalNodes>
          <leafValues>
            -8.6148035526275635e-01 6.4222657680511475e-01</leafValues></_></weakClassifiers></_>
    <!-- stage 14 -->
    <_>
      <maxWeakCount>2</maxWeakCount>
      <stageThreshold>1.1969102174043655e-01</stageThreshold>
      <weakClassifiers>
        <_>
          <internalNodes>
            0 -1 52 1.0487732943147421e-03</internalNodes>
          <leafValues>
            -5.7894736528396606e-01 9.4117647409439087e-01</leafValues></_>
        <_>
          <internalNodes>
            0 -1 64 -2.5284780349466018e-06</internalNodes>
          <leafValues>
            6.9863837957382202e-01 -7.8703844547271729e-01</leafValues></_></weakClassifiers></_>
    <!-- stage 15 -->
    <_>
      <maxWeakCount>3</maxWeakCount>
      <stageThreshold>-5.2125936746597290e-01</stageThreshold>
      <weakClassifiers>
        <_>
          <internalNodes>
            0 -1 59 -2.9907273128628731e-03</internalNodes>
          <leafValues>
            8.2857143878936768e-01 -5.4666668176651001e-01</leafValues></_>
        <_>
          <internalNodes>
            0 -1 65 -8.6280178948072717e-06</internalNodes>
          <leafValues>
            5.6753778457641602e-01 -7.8893530368804932e-01</leafValues></_>
        <_>
          <internalNodes>
            0 -1 39 2.1848670439794660e-04</internalNodes>
          <leafValues>
            -5.4213052988052368e-01 8.8164412975311279e-01</leafValues></_></weakClassifiers></_>
    <!-- stage 16 -->
    <_>
      <maxWeakCount>2</maxWeakCount>
      <stageThreshold>2.0770065020769835e-03</stageThreshold>
      <weakClassifiers>
        <_>
          <internalNodes>
            0 -1 20 -1.2604836374521255e-03</internalNodes>
          <leafValues>
            1. -4.3529412150382996e-01</leafValues></_>
        <_>
          <internalNodes>
            0 -1 53 -1.5816204249858856e-02</internalNodes>
          <leafValues>
            -1. 4.3737113475799561e-01</leafValues></_></weakClassifiers></_>
    <!-- stage 17 -->
    <_>
      <maxWeakCount>2</maxWeakCount>
      <stageThreshold>-6.0397791676223278e-03</stageThreshold>
      <weakClassifiers>
        <_>
          <internalNodes>
            0 -1 66 -1.2317316140979528e-03</internalNodes>
          <leafValues>
            9.3103450536727905e-01 -4.8148149251937866e-01</leafValues></_>
        <_>
          <internalNodes>
            0 -1 7 -1.9088052213191986e-03</internalNodes>
          <leafValues>
            -8.7749499082565308e-01 4.7544169425964355e-01</leafValues></_></weakClassifiers></_>
    <!-- stage 18 -->
    <_>
      <maxWeakCount>3</maxWeakCount>
      <stageThreshold>-2.3201152682304382e-01</stageThreshold>
      <weakClassifiers>
        <_>
          <internalNodes>
            0 -1 28 1.2440192513167858e-03</internalNodes>
          <leafValues>
            -5.4666668176651001e-01 8.2857143878936768e-01</leafValues></_>
        <_>
          <internalNodes>
            0 -1 38 -2.6513133198022842e-03</internalNodes>
          <leafValues>
            8.9151370525360107e-01 -4.9539327621459961e-01</leafValues></_>
        <_>
          <internalNodes>
            0 -1 1 1.7196750268340111e-03</internalNodes>
          <leafValues>
            -4.9635276198387146e-01 8.1004840135574341e-01</leafValues></_></weakClassifiers></_>
    <!-- stage 19 -->
    <_>
      <maxWeakCount>3</maxWeakCount>
      <stageThreshold>-5.0737476348876953e-01</stageThreshold>
      <weakClassifiers>
        <_>
          <internalNodes>
            0 -1 63 1.1498644016683102e-03</internalNodes>
          <leafValues>
            -6.0000002384185791e-01 7.5000000000000000e-01</leafValues></_>
        <_>
          <internalNodes>
            0 -1 27 -5.2099879831075668e-03</internalNodes>
          <leafValues>
            9.2222726345062256e-01 -4.5900723338127136e-01</leafValues></_>
        <_>
          <internalNodes>
            0 -1 41 1.7667335923761129e-03</internalNodes>
          <leafValues>
            5.6404340267181396e-01 -7.9836750030517578e-01</leafValues></_></weakClassifiers></_>
    <!-- stage 20 -->
    <_>
      <maxWeakCount>3</maxWeakCount>
      <stageThreshold>-4.6954908967018127e-01</stageThreshold>
      <weakClassifiers>
        <_>
          <internalNodes>
            0 -1 19 -4.8935459926724434e-03</internalNodes>
          <leafValues>
            7.7142858505249023e-01 -5.1999998092651367e-01</leafValues></_>
        <_>
          <internalNodes>
            0 -1 44 8.0583099042996764e-04</internalNodes>
          <leafValues>
            -5.0522732734680176e-01 8.5922867059707642e-01</leafValues></_>
        <_>
          <internalNodes>
            0 -1 69 9.6440689958399162e-06</internalNodes>
          <leafValues>
            -7.3575031757354736e-01 6.4477437734603882e-01</leafValues></_></weakClassifiers></_>
    <!-- stage 21 -->
    <_>
      <maxWeakCount>3</maxWeakCount>
      <stageThreshold>-4.2755842208862305e-01</stageThreshold>
      <weakClassifiers>
        <_>
          <internalNodes>
            0 -1 58 1.9798047840595245e-02</internalNodes>
          <leafValues>
            -5.8904111385345459e-01 8.3783781528472900e-01</leafValues></_>
        <_>
          <internalNodes>
            0 -1 42 -1.5646033716620877e-05</internalNodes>
          <leafValues>
            8.6521136760711670e-01 -5.3967434167861938e-01</leafValues></_>
        <_>
          <internalNodes>
            0 -1 5 -2.9504653066396713e-02</internalNodes>
          <leafValues>
            7.0115703344345093e-01 -6.9548624753952026e-01</leafValues></_></weakClassifiers></_>
    <!-- stage 22 -->
    <_>
      <maxWeakCount>4</maxWeakCount>
      <stageThreshold>-2.0221982896327972e-01</stageThreshold>
      <weakClassifiers>
        <_>
          <internalNodes>
            0 -1 22 3.7379328161478043e-02</internalNodes>
          <leafValues>
            -7.9591834545135498e-01 4.4262295961380005e-01</leafValues></_>
        <_>
          <internalNodes>
            0 -1 55 -2.9352685669437051e-04</internalNodes>
          <leafValues>
            -8.5294413566589355e-01 4.5023098587989807e-01</leafValues></_>
        <_>
          <internalNodes>
            0 -1 31 -1.6798134311102331e-05</internalNodes>
          <leafValues>
            7.9034751653671265e-01 -5.6722736358642578e-01</leafValues></_>
        <_>
          <internalNodes>
            0 -1 36 2.3946620058268309e-04</internalNodes>
          <leafValues>
            -5.2784645557403564e-01 7.2540336847305298e-01</leafValues></_></weakClassifiers></_>
    <!-- stage 23 -->
    <_>
      <maxWeakCount>3</maxWeakCount>
      <stageThreshold>3.1376755237579346e-01</stageThreshold>
      <weakClassifiers>
        <_>
          <internalNodes>
            0 -1 4 2.3052196949720383e-02</internalNodes>
          <leafValues>
            5.2542370557785034e-01 -8.4313726425170898e-01</leafValues></_>
        <_>
          <internalNodes>
            0 -1 21 -3.4313265234231949e-02</internalNodes>
          <leafValues>
            5.7975524663925171e-01 -8.1732916831970215e-01</leafValues></_>
        <_>
          <internalNodes>
            0 -1 6 -5.8087494835490361e-05</internalNodes>
          <leafValues>
            6.0567301511764526e-01 -6.9406348466873169e-01</leafValues></_></weakClassifiers></_>
    <!-- stage 24 -->
    <_>
      <maxWeakCount>2</maxWeakCount>
      <stageThreshold>7.5524359941482544e-02</stageThreshold>
      <weakClassifiers>
        <_>
          <internalNodes>
            0 -1 3 7.9566678323317319e-05</internalNodes>
          <leafValues>
            -6.7123287916183472e-01 1.</leafValues></_>
        <_>
          <internalNodes>
            0 -1 67 -1.0328597272746265e-04</internalNodes>
          <leafValues>
            -8.6816424131393433e-01 7.4675720930099487e-01</leafValues></_></weakClassifiers></_>
    <!-- stage 25 -->
    <_>
      <maxWeakCount>2</maxWeakCount>
      <stageThreshold>-1.9323623180389404e-01</stageThreshold>
      <weakClassifiers>
        <_>
          <internalNodes>
            0 -1 12 2.7915225364267826e-03</internalNodes>
          <leafValues>
            6.6666668653488159e-01 -8.5714286565780640e-01</leafValues></_>
        <_>
          <internalNodes>
            0 -1 57 5.9422705817269161e-05</internalNodes>
          <leafValues>
            6.8900954723358154e-01 -8.5990291833877563e-01</leafValues></_></weakClassifiers></_>
    <!-- stage 26 -->
    <_>
      <maxWeakCount>2</maxWeakCount>
      <stageThreshold>2.0763654261827469e-02</stageThreshold>
      <weakClassifiers>
        <_>
          <internalNodes>
            0 -1 13 3.3938110573217273e-04</internalNodes>
          <leafValues>
            -6.3380283117294312e-01 8.4615385532379150e-01</leafValues></_>
        <_>
          <internalNodes>
            0 -1 60 -1.1603722814470530e-03</internalNodes>
          <leafValues>
            -8.2539021968841553e-01 7.0599806308746338e-01</leafValues></_></weakClassifiers></_>
    <!-- stage 27 -->
    <_>
      <maxWeakCount>2</maxWeakCount>
      <stageThreshold>-9.5029668882489204e-03</stageThreshold>
      <weakClassifiers>
        <_>
          <internalNodes>
            0 -1 34 -1.0998673737049103e-02</internalNodes>
          <leafValues>
            -8.8888889551162720e-01 6.4285713434219360e-01</leafValues></_>
        <_>
          <internalNodes>
            0 -1 14 -2.0009300205856562e-03</internalNodes>
          <leafValues>
            1. -6.5236008167266846e-01</leafValues></_></weakClassifiers></_>
    <!-- stage 28 -->
    <_>
      <maxWeakCount>2</maxWeakCount>
      <stageThreshold>8.8946029543876648e-02</stageThreshold>
      <weakClassifiers>
        <_>
          <internalNodes>
            0 -1 16 -5.9377877041697502e-03</internalNodes>
          <leafValues>
            9.4444441795349121e-01 -6.2162160873413086e-01</leafValues></_>
        <_>
          <internalNodes>
            0 -1 29 1.0646929033100605e-02</internalNodes>
          <leafValues>
            7.7080196142196655e-01 -8.5549843311309814e-01</leafValues></_></weakClassifiers></_>
    <!-- stage 29 -->
    <_>
      <maxWeakCount>2</maxWeakCount>
      <stageThreshold>6.3970029354095459e-02</stageThreshold>
      <weakClassifiers>
        <_>
          <internalNodes>
            0 -1 48 -6.3518770039081573e-03</internalNodes>
          <leafValues>
            -8.4375000000000000e-01 9.1304349899291992e-01</leafValues></_>
        <_>
          <internalNodes>
            0 -1 15 -1.0780185402836651e-04</internalNodes>
          <leafValues>
            -8.4907346963882446e-01 9.3797081708908081e-01</leafValues></_></weakClassifiers></_></stages>
  <features>
    <_>
      <rects>
        <_>
          0 0 16 7 -1.</_>
        <_>
          8 0 8 7 2.</_></rects>
      <tilted>0</tilted></_>
    <_>
      <rects>
        <_>
          0 0 46 1 -1.</_>
        <_>
          23 0 23 1 2.</_></rects>
      <tilted>0</tilted></_>
    <_>
      <rects>
        <_>
          0 0 84 87 -1.</_>
        <_>
          28 0 28 87 2.</_></rects>
      <tilted>0</tilted></_>
    <_>
      <rects>
        <_>
          0 3 4 11 -1.</_>
        <_>
          2 3 2 11 2.</_></rects>
      <tilted>0</tilted></_>
    <_>
      <rects>
        <_>
          0 10 84 42 -1.</_>
        <_>
          0 10 42 21 2.</_>
        <_>
          42 31 42 21 2.</_></rects>
      <tilted>0</tilted></_>
    <_>
      <rects>
        <_>
          0 44 63 4 -1.</_>
        <_>
          21 44 21 4 2.</_></rects>
      <tilted>0</tilted></_>
    <_>
      <rects>
        <_>
          0 52 23 2 -1.</_>
        <_>
          0 53 23 1 2.</_></rects>
      <tilted>0</tilted></_>
    <_>
      <rects>
        <_>
          0 59 7 14 -1.</_>
        <_>
          0 66 7 7 2.</_></rects>
      <tilted>0</tilted></_>
    <_>
      <rects>
        <_>
          0 83 57 1 -1.</_>
        <_>
          19 83 19 1 2.</_></rects>
      <tilted>0</tilted></_>
    <_>
      <rects>
        <_>
          1 41 36 42 -1.</_>
        <_>
          1 62 36 21 2.</_></rects>
      <tilted>0</tilted></_>
    <_>
      <rects>
        <_>
          2 1 42 3 -1.</_>
        <_>
          23 1 21 3 2.</_></rects>
      <tilted>0</tilted></_>
    <_>
      <rects>
        <_>
          2 13 88 82 -1.</_>
        <_>
          2 54 88 41 2.</_></rects>
      <tilted>0</tilted></_>
    <_>
      <rects>
        <_>
          4 1 16 40 -1.</_>
        <_>
          4 1 8 20 2.</_>
        <_>
          12 21 8 20 2.</_></rects>
      <tilted>0</tilted></_>
    <_>
      <rects>
        <_>
          6 14 6 46 -1.</_>
        <_>
          6 14 3 23 2.</_>
        <_>
          9 37 3 23 2.</_></rects>
      <tilted>0</tilted></_>
    <_>
      <rects>
        <_>
          6 14 30 26 -1.</_>
        <_>
          6 14 15 13 2.</_>
        <_>
          21 27 15 13 2.</_></rects>
      <tilted>0</tilted></_>
    <_>
      <rects>
        <_>
          7 65 20 4 -1.</_>
        <_>
          7 65 10 2 2.</_>
        <_>
          17 67 10 2 2.</_></rects>
      <tilted>0</tilted></_>
    <_>
      <rects>
        <_>
          8 51 20 28 -1.</_>
        <_>
          8 65 20 14 2.</_></rects>
      <tilted>0</tilted></_>
    <_>
      <rects>
        <_>
          9 11 6 16 -1.</_>
        <_>
          9 11 3 8 2.</_>
        <_>
          12 19 3 8 2.</_></rects>
      <tilted>0</tilted></_>
    <_>
      <rects>
        <_>
          10 19 6 38 -1.</_>
        <_>
          10 38 6 19 2.</_></rects>
      <tilted>0</tilted></_>
    <_>
      <rects>
        <_>
          11 75 30 6 -1.</_>
        <_>
          26 75 15 6 2.</_></rects>
      <tilted>0</tilted></_>
    <_>
      <rects>
        <_>
          12 7 11 6 -1.</_>
        <_>
          12 10 11 3 2.</_></rects>
      <tilted>0</tilted></_>
    <_>
      <rects>
        <_>
          12 25 45 8 -1.</_>
        <_>
          27 25 15 8 2.</_></rects>
      <tilted>0</tilted></_>
    <_>
      <rects>
        <_>
          15 0 85 56 -1.</_>
        <_>
          15 28 85 28 2.</_></rects>
      <tilted>0</tilted></_>
    <_>
      <rects>
        <_>
          15 75 61 16 -1.</_>
        <_>
          15 83 61 8 2.</_></rects>
      <tilted>0</tilted></_>
    <_>
      <rects>
        <_>
          16 1 60 12 -1.</_>
        <_>
          16 7 60 6 2.</_></rects>
      <tilted>0</tilted></_>
    <_>
      <rects>
        <_>
          17 30 17 10 -1.</_>
        <_>
          17 35 17 5 2.</_></rects>
      <tilted>0</tilted></_>
    <_>
      <rects>
        <_>
          17 91 10 8 -1.</_>
        <_>
          17 91 5 4 2.</_>
        <_>
          22 95 5 4 2.</_></rects>
      <tilted>0</tilted></_>
    <_>
      <rects>
        <_>
          18 17 63 8 -1.</_>
        <_>
          18 21 63 4 2.</_></rects>
      <tilted>0</tilted></_>
    <_>
      <rects>
        <_>
          19 31 3 14 -1.</_>
        <_>
          19 38 3 7 2.</_></rects>
      <tilted>0</tilted></_>
    <_>
      <rects>
        <_>
          19 55 32 38 -1.</_>
        <_>
          19 55 16 19 2.</_>
        <_>
          35 74 16 19 2.</_></rects>
      <tilted>0</tilted></_>
    <_>
      <rects>
        <_>
          21 4 69 4 -1.</_>
        <_>
          21 6 69 2 2.</_></rects>
      <tilted>0</tilted></_>
    <_>
      <rects>
        <_>
          21 46 1 4 -1.</_>
        <_>
          21 48 1 2 2.</_></rects>
      <tilted>0</tilted></_>
    <_>
      <rects>
        <_>
          21 57 16 28 -1.</_>
        <_>
          21 57 8 14 2.</_>
        <_>
          29 71 8 14 2.</_></rects>
      <tilted>0</tilted></_>
    <_>
      <rects>
        <_>
          22 76 54 6 -1.</_>
        <_>
          22 76 27 3 2.</_>
        <_>
          49 79 27 3 2.</_></rects>
      <tilted>0</tilted></_>
    <_>
      <rects>
        <_>
          25 20 50 18 -1.</_>
        <_>
          25 20 25 9 2.</_>
        <_>
          50 29 25 9 2.</_></rects>
      <tilted>0</tilted></_>
    <_>
      <rects>
        <_>
          27 5 48 6 -1.</_>
        <_>
          27 8 48 3 2.</_></rects>
      <tilted>0</tilted></_>
    <_>
      <rects>
        <_>
          30 0 20 6 -1.</_>
        <_>
          30 0 10 3 2.</_>
        <_>
          40 3 10 3 2.</_></rects>
      <tilted>0</tilted></_>
    <_>
      <rects>
        <_>
          30 51 8 36 -1.</_>
        <_>
          30 69 8 18 2.</_></rects>
      <tilted>0</tilted></_>
    <_>
      <rects>
        <_>
          30 77 38 8 -1.</_>
        <_>
          30 77 19 4 2.</_>
        <_>
          49 81 19 4 2.</_></rects>
      <tilted>0</tilted></_>
    <_>
      <rects>
        <_>
          34 11 10 2 -1.</_>
        <_>
          39 11 5 2 2.</_></rects>
      <tilted>0</tilted></_>
    <_>
      <rects>
        <_>
          36 98 56 2 -1.</_>
        <_>
          36 98 28 1 2.</_>
        <_>
          64 99 28 1 2.</_></rects>
      <tilted>0</tilted></_>
    <_>
      <rects>
        <_>
          37 0 44 12 -1.</_>
        <_>
          37 0 22 6 2.</_>
        <_>
          59 6 22 6 2.</_></rects>
      <tilted>0</tilted></_>
    <_>
      <rects>
        <_>
          37 55 6 1 -1.</_>
        <_>
          40 55 3 1 2.</_></rects>
      <tilted>0</tilted></_>
    <_>
      <rects>
        <_>
          41 11 31 4 -1.</_>
        <_>
          41 13 31 2 2.</_></rects>
      <tilted>0</tilted></_>
    <_>
      <rects>
        <_>
          42 27 14 35 -1.</_>
        <_>
          49 27 7 35 2.</_></rects>
      <tilted>0</tilted></_>
    <_>
      <rects>
        <_>
          44 7 28 7 -1.</_>
        <_>
          58 7 14 7 2.</_></rects>
      <tilted>0</tilted></_>
    <_>
      <rects>
        <_>
          46 97 54 2 -1.</_>
        <_>
          46 97 27 1 2.</_>
        <_>
          73 98 27 1 2.</_></rects>
      <tilted>0</tilted></_>
    <_>
      <rects>
        <_>
          46 97 33 2 -1.</_>
        <_>
          46 98 33 1 2.</_></rects>
      <tilted>0</tilted></_>
    <_>
      <rects>
        <_>
          49 18 32 30 -1.</_>
        <_>
          49 18 16 15 2.</_>
        <_>
          65 33 16 15 2.</_></rects>
      <tilted>0</tilted></_>
    <_>
      <rects>
        <_>
          52 78 44 7 -1.</_>
        <_>
          74 78 22 7 2.</_></rects>
      <tilted>0</tilted></_>
    <_>
      <rects>
        <_>
          54 1 46 8 -1.</_>
        <_>
          54 1 23 4 2.</_>
        <_>
          77 5 23 4 2.</_></rects>
      <tilted>0</tilted></_>
    <_>
      <rects>
        <_>
          55 16 3 6 -1.</_>
        <_>
          55 19 3 3 2.</_></rects>
      <tilted>0</tilted></_>
    <_>
      <rects>
        <_>
          56 4 44 4 -1.</_>
        <_>
          56 4 22 2 2.</_>
        <_>
          78 6 22 2 2.</_></rects>
      <tilted>0</tilted></_>
    <_>
      <rects>
        <_>
          57 47 42 25 -1.</_>
        <_>
          78 47 21 25 2.</_></rects>
      <tilted>0</tilted></_>
    <_>
      <rects>
        <_>
          59 28 29 12 -1.</_>
        <_>
          59 34 29 6 2.</_></rects>
      <tilted>0</tilted></_>
    <_>
      <rects>
        <_>
          73 78 6 8 -1.</_>
        <_>
          73 82 6 4 2.</_></rects>
      <tilted>0</tilted></_>
    <_>
      <rects>
        <_>
          74 23 25 28 -1.</_>
        <_>
          74 37 25 14 2.</_></rects>
      <tilted>0</tilted></_>
    <_>
      <rects>
        <_>
          74 93 12 4 -1.</_>
        <_>
          74 93 6 2 2.</_>
        <_>
          80 95 6 2 2.</_></rects>
      <tilted>0</tilted></_>
    <_>
      <rects>
        <_>
          75 24 14 30 -1.</_>
        <_>
          75 39 14 15 2.</_></rects>
      <tilted>0</tilted></_>
    <_>
      <rects>
        <_>
          76 17 17 16 -1.</_>
        <_>
          76 25 17 8 2.</_></rects>
      <tilted>0</tilted></_>
    <_>
      <rects>
        <_>
          79 68 14 12 -1.</_>
        <_>
          79 74 14 6 2.</_></rects>
      <tilted>0</tilted></_>
    <_>
      <rects>
        <_>
          80 53 7 12 -1.</_>
        <_>
          80 59 7 6 2.</_></rects>
      <tilted>0</tilted></_>
    <_>
      <rects>
        <_>
          84 20 12 6 -1.</_>
        <_>
          84 23 12 3 2.</_></rects>
      <tilted>0</tilted></_>
    <_>
      <rects>
        <_>
          84 26 1 26 -1.</_>
        <_>
          84 39 1 13 2.</_></rects>
      <tilted>0</tilted></_>
    <_>
      <rects>
        <_>
          89 59 6 2 -1.</_>
        <_>
          92 59 3 2 2.</_></rects>
      <tilted>0</tilted></_>
    <_>
      <rects>
        <_>
          89 88 2 6 -1.</_>
        <_>
          89 91 2 3 2.</_></rects>
      <tilted>0</tilted></_>
    <_>
      <rects>
        <_>
          90 0 10 7 -1.</_>
        <_>
          95 0 5 7 2.</_></rects>
      <tilted>0</tilted></_>
    <_>
      <rects>
        <_>
          90 4 9 4 -1.</_>
        <_>
          90 6 9 2 2.</_></rects>
      <tilted>0</tilted></_>
    <_>
      <rects>
        <_>
          92 0 3 6 -1.</_>
        <_>
          92 3 3 3 2.</_></rects>
      <tilted>0</tilted></_>
    <_>
      <rects>
        <_>
          93 4 2 10 -1.</_>
        <_>
          93 4 1 5 2.</_>
        <_>
          94 9 1 5 2.</_></rects>
      <tilted>0</tilted></_>
    <_>
      <rects>
        <_>
          93 7 1 48 -1.</_>
        <_>
          93 31 1 24 2.</_></rects>
      <tilted>0</tilted></_></features></cascade>
</opencv_storage>
